digraph Tree {
node [shape=box, style="filled, rounded", color="black", fontname="helvetica"] ;
edge [fontname="helvetica"] ;
0 [label="petal width (cm) <= 0.75\ngini = 0.66\nsamples = 92\nvalue = [57, 42, 51]\nclass = setosa", fillcolor="#fdf7f3"] ;
1 [label="gini = 0.0\nsamples = 33\nvalue = [57, 0, 0]\nclass = setosa", fillcolor="#e58139"] ;
0 -> 1 [labeldistance=2.5, labelangle=45, headlabel="True"] ;
2 [label="petal width (cm) <= 1.75\ngini = 0.5\nsamples = 59\nvalue = [0, 42, 51]\nclass = virginica", fillcolor="#e9dcfa"] ;
0 -> 2 [labeldistance=2.5, labelangle=-45, headlabel="False"] ;
3 [label="petal length (cm) <= 4.95\ngini = 0.35\nsamples = 31\nvalue = [0, 42, 12]\nclass = versicolor", fillcolor="#72eca5"] ;
2 -> 3 ;
4 [label="gini = 0.0\nsamples = 25\nvalue = [0, 38, 0]\nclass = versicolor", fillcolor="#39e581"] ;
3 -> 4 ;
5 [label="sepal width (cm) <= 2.65\ngini = 0.38\nsamples = 6\nvalue = [0, 4, 12]\nclass = virginica", fillcolor="#ab7bee"] ;
3 -> 5 ;
6 [label="gini = 0.0\nsamples = 2\nvalue = [0, 0, 7]\nclass = virginica", fillcolor="#8139e5"] ;
5 -> 6 ;
7 [label="sepal length (cm) <= 6.95\ngini = 0.49\nsamples = 4\nvalue = [0, 4, 5]\nclass = virginica", fillcolor="#e6d7fa"] ;
5 -> 7 ;
8 [label="sepal length (cm) <= 6.15\ngini = 0.44\nsamples = 3\nvalue = [0, 4, 2]\nclass = versicolor", fillcolor="#9cf2c0"] ;
7 -> 8 ;
9 [label="gini = 0.0\nsamples = 1\nvalue = [0, 2, 0]\nclass = versicolor", fillcolor="#39e581"] ;
8 -> 9 ;
10 [label="petal length (cm) <= 5.05\ngini = 0.5\nsamples = 2\nvalue = [0, 2, 2]\nclass = versicolor", fillcolor="#ffffff"] ;
8 -> 10 ;
11 [label="gini = 0.0\nsamples = 1\nvalue = [0, 2, 0]\nclass = versicolor", fillcolor="#39e581"] ;
10 -> 11 ;
12 [label="gini = 0.0\nsamples = 1\nvalue = [0, 0, 2]\nclass = virginica", fillcolor="#8139e5"] ;
10 -> 12 ;
13 [label="gini = 0.0\nsamples = 1\nvalue = [0, 0, 3]\nclass = virginica", fillcolor="#8139e5"] ;
7 -> 13 ;
14 [label="gini = 0.0\nsamples = 28\nvalue = [0, 0, 39]\nclass = virginica", fillcolor="#8139e5"] ;
2 -> 14 ;
}